
\data\
ngram 1=106
ngram 2=315
ngram 3=107

\1-grams:
-0.9039146	</s>
-99	<s>	-0.9446034
-2.332772	ALL	-0.1405441
-2.332772	ANN	-0.1405441
-2.242257	APPLE	-0.1405441
-1.634969	ARRIVE	-0.9262802
-2.242257	BILL	-0.1405441
-2.136524	BLAME	-0.140544
-2.332772	BLUE	-0.1405441
-1.634969	BOOK	-1.08123
-2.332772	BORROW	-0.1405441
-2.242257	BOX	-0.042089
-2.242257	BOY	-0.1405441
-2.332772	BREAK-DOWN	-0.1405441
-2.332772	BROCCOLI	-0.1405441
-2.242257	BROTHER	-0.042089
-2.332772	BUT	-0.140544
-1.698948	BUY	-0.472601
-1.979755	CAN	-0.1051871
-2.332772	CANDY	-0.1405441
-1.774009	CAR	-0.06469022
-2.332772	CHICAGO	-0.1405441
-2.332772	CHICKEN	-0.1405441
-2.332772	CHINA	-0.1405441
-2.332772	CHOCOLATE	-0.1405441
-2.332772	COAT	-0.1405441
-2.242257	CORN	-0.042089
-2.332772	DECIDE	-0.1405441
-2.242257	EAT	-0.140544
-2.332772	FIND	-0.1405441
-2.242257	FINISH	-0.140544
-2.332772	FISH	-0.1405441
-2.242257	FRANK	-0.1405441
-2.332772	FRED	-0.1405441
-2.332772	FRIEND	-0.1405441
-1.86481	FUTURE	-0.3423347
-2.332772	GET	-0.140544
-2.242257	GIRL	-0.1405441
-1.634969	GIVE	-0.07883797
-1.86481	GO	-0.1137601
-2.332772	GROUP	-0.1405441
-2.136524	HAVE	-0.07249311
-2.332772	HERE	-0.1405441
-2.332772	HIT	-0.1405441
-2.332772	HOMEWORK	-0.1405441
-2.242257	HOUSE	-0.140544
-1.286115	IX	-0.2569418
-2.136524	IX-1P	-0.1405441
-2.332772	JANA	-0.1405441
-1.44522	JOHN	-0.2831309
-2.242257	KNOW	-0.042089
-2.332772	LAST-WEEK	-0.1405441
-2.332772	LEAVE	-0.1405441
-2.332772	LEG	-0.1405441
-2.136524	LIKE	-0.1051871
-2.332772	LIVE	-0.1405441
-1.979755	LOVE	-0.3423347
-2.332772	MAN	-0.1405441
-2.332772	MANY	-0.1405441
-1.44522	MARY	-0.411053
-2.136524	MOTHER	-0.07249311
-2.332772	MOVIE	-0.1405441
-2.332772	NAME	-0.1405441
-2.242257	NEW	-0.1405441
-2.332772	NEW-YORK	-0.1405441
-2.332772	NEXT-WEEK	-0.1405441
-1.979755	NOT	-0.0984484
-2.332772	OLD	-0.1405441
-2.332772	PARTY	-0.1405441
-2.332772	PAST	-0.1405441
-2.136524	PEOPLE	-0.1405441
-1.774009	POSS	-0.08409905
-2.332772	POTATO	-0.1405441
-1.979755	PREFER	-0.1405441
-2.332772	PUTASIDE	-0.1405441
-2.242257	READ	-0.042089
-2.242257	SAY	-0.1405441
-2.332772	SAY-1P	-0.140544
-2.332772	SEARCH-FOR	-0.1405441
-2.136524	SEE	-0.140544
-2.332772	SELF	-0.140544
-2.242257	SELL	-0.1405441
-2.332772	SHOOT	-0.1405441
-2.136524	SHOULD	-0.1100652
-1.86481	SOMETHING-ONE	-0.1137601
-2.332772	STOLEN	-0.1405441
-2.332772	STUDENT	-0.140544
-2.332772	SUE	-0.1405441
-2.242257	TEACHER	-0.1405441
-2.242257	TELL	-0.042089
-2.332772	THINK	-0.1405441
-2.332772	THROW	-0.1405441
-2.332772	TOMORROW	-0.1405441
-2.332772	TOY	-0.1405441
-2.136524	VEGETABLE	-0.1405441
-2.242257	VIDEOTAPE	-0.042089
-1.774009	VISIT	-0.6539434
-2.332772	WANT	-0.1405441
-1.374449	WHAT	-0.5318694
-1.48546	WHO	-0.2968379
-2.332772	WILL	-0.1405441
-1.979755	WOMAN	-0.105187
-2.242257	WONT	-0.042089
-2.332772	WRITE	-0.1405441
-1.86481	YESTERDAY	-0.140544
-2.483841	[UNKNOWN]

\2-grams:
-2.57865	<s> ALL
-2.57865	<s> ANN
-2.393294	<s> ARRIVE	-0.2414476
-2.686028	<s> FRANK	-0.2414476
-2.436356	<s> FUTURE
-1.193625	<s> IX	-0.05951081
-2.649797	<s> IX-1P
-0.2530479	<s> JOHN	-0.2202256
-2.57865	<s> LAST-WEEK
-2.531642	<s> LIKE
-1.438428	<s> LOVE	-0.2414476
-2.57865	<s> MANY
-1.328288	<s> MARY	-0.1797111
-2.57865	<s> NAME
-2.57865	<s> NEXT-WEEK
-2.531642	<s> PEOPLE
-2.395555	<s> POSS
-2.57865	<s> SHOOT
-1.352287	<s> SOMETHING-ONE	-0.07731809
-2.712613	<s> SUE	-0.2414476
-2.558964	<s> TEACHER
-2.686028	<s> TELL	-0.2414476
-2.531642	<s> VEGETABLE
-1.201027	<s> WHAT	-0.1364606
-1.208557	<s> WHO	-0.1231594
-2.481391	<s> WOMAN
-0.5518924	ALL BOY
-0.5501289	ANN BLAME
-0.6411042	APPLE </s>
-0.790768	APPLE WHO	-0.2414476
-0.2794441	ARRIVE </s>
-0.4822398	ARRIVE HERE	-0.15752
-1.578803	ARRIVE NOT
-1.684689	ARRIVE WHO	-0.1023634
-1.02194	BILL MARY
-1.135135	BILL SAY
-1.001447	BILL WHAT
-1.102399	BILL YESTERDAY	-0.2414477
-0.7389119	BLAME </s>
-1.019907	BLAME FRED
-0.9277027	BLAME MARY
-0.4356411	BLUE </s>
-0.0594274	BOOK </s>
-1.552337	BOOK PUTASIDE
-1.506554	BOOK WHAT
-0.5518924	BORROW VIDEOTAPE
-0.6869672	BOX </s>
-0.8096579	BOY BOOK
-0.8096579	BOY GIVE
-0.4356411	BREAK-DOWN </s>
-0.4356411	BROCCOLI </s>
-0.9453852	BROTHER ARRIVE	-0.2414476
-0.5466028	BUT CAN
-1.617252	BUY CAR	-0.1103195
-0.2489575	BUY HOUSE	-0.5834887
-1.346049	BUY IX
-1.37811	BUY WHAT
-1.491534	BUY YESTERDAY	-0.2414477
-0.8903723	CAN </s>
-1.209172	CAN BUY
-1.296092	CAN EAT
-1.303413	CAN GET
-1.245699	CAN GO	-0.2824587
-0.4356411	CANDY </s>
-0.8475416	CAR </s>
-1.567098	CAR BLUE	-0.2414476
-1.567098	CAR BREAK-DOWN	-0.15752
-1.334219	CAR FUTURE	-0.09430912
-1.567098	CAR STOLEN	-0.2414476
-0.4356411	CHICAGO </s>
-0.4356411	CHICKEN </s>
-0.5031928	CHINA IX
-0.6411042	CHOCOLATE </s>
-0.790768	CHOCOLATE WHO
-0.4356411	COAT </s>
-0.6869672	CORN </s>
-0.5396354	DECIDE VISIT
-1.019907	EAT BUT
-1.019907	EAT CHICKEN
-0.9111316	EAT WHAT
-0.5431051	FIND SOMETHING-ONE
-1.016379	FINISH READ
-1.01126	FINISH SEE
-0.981585	FINISH VISIT
-0.5518924	FISH WONT
-0.6411042	FRANK </s>
-0.8227236	FRANK POSS
-0.5031928	FRED IX
-0.5396354	FRIEND POSS
-0.3384877	FUTURE </s>
-1.399984	FUTURE BUY
-1.477274	FUTURE FINISH
-1.432672	FUTURE GO
-1.327637	FUTURE JOHN
-1.597069	FUTURE NOT	-0.1099984
-0.5466028	GET CAN
-0.846559	GIRL BOX
-0.8096579	GIRL GIVE	-0.1575199
-1.489169	GIVE BOY
-1.489169	GIVE GIRL
-1.422493	GIVE GIVE
-1.21021	GIVE IX
-1.650739	GIVE JANA	-0.2414476
-1.239836	GIVE JOHN	-0.15752
-1.489169	GIVE TEACHER
-1.37037	GO CAN	-0.2824587
-1.346164	GO FUTURE
-1.128538	GO IX
-1.418671	GO MOVIE
-1.418671	GO NEW-YORK	-0.2414476
-1.418671	GO PARTY
-1.54195	GO SHOULD	-0.1422706
-0.532778	GROUP GIVE
-1.090499	HAVE BOOK	-0.2414476
-1.013222	HAVE VIDEOTAPE
-0.4356411	HERE </s>
-0.5501289	HIT BLAME
-0.4356411	HOMEWORK </s>
-0.6411042	HOUSE </s>
-0.846559	HOUSE SELL
-0.4362733	IX </s>
-1.71679	IX BOOK
-1.72479	IX CAR
-1.896142	IX GIRL	-0.15752
-1.650539	IX GIVE
-1.867263	IX HAVE
-1.917014	IX HIT
-1.455831	IX IX	-0.1575199
-1.531844	IX JOHN
-1.982488	IX LIKE	-0.1418927
-1.917014	IX MAN
-1.896142	IX NEW
-1.867263	IX PEOPLE
-1.917014	IX SAY-1P
-1.767291	IX SOMETHING-ONE
-1.917014	IX THINK
-1.558617	IX WHO
-1.914768	IX WOMAN
-1.077851	IX-1P BUY
-1.139779	IX-1P FIND
-1.135135	IX-1P KNOW
-1.128419	IX-1P SEE
-0.5531	JANA TOY	-0.2414476
-1.146085	JOHN </s>
-1.732713	JOHN ARRIVE	-0.07979497
-2.026305	JOHN BOX	-0.1575199
-2.026305	JOHN BROTHER
-1.773379	JOHN BUY	-0.2034773
-1.92487	JOHN CAN	-0.1626875
-2.053001	JOHN DECIDE
-2.053001	JOHN FISH
-1.868296	JOHN FUTURE	-0.1695069
-1.732713	JOHN GIVE	-0.1411074
-0.9411936	JOHN GO	-0.1782634
-1.505036	JOHN IX
-2.053001	JOHN LEAVE	-0.1575199
-2.091462	JOHN LIKE	-0.08120639
-0.9475133	JOHN LOVE	-0.06743228
-1.599958	JOHN MARY
-1.989934	JOHN MOTHER
-1.92487	JOHN NOT	-0.2414476
-2.053001	JOHN PAST
-1.818249	JOHN POSS
-1.92487	JOHN PREFER	-0.2414477
-2.026305	JOHN READ
-2.026305	JOHN SAY
-2.053001	JOHN SEARCH-FOR
-1.055832	JOHN SEE	-0.1746454
-1.989934	JOHN SHOULD
-1.883949	JOHN VISIT
-2.053001	JOHN WANT
-1.629539	JOHN WHO	-0.2414477
-2.053001	JOHN WILL	-0.2414476
-2.053001	JOHN WRITE
-1.868296	JOHN YESTERDAY
-0.8559464	KNOW IX	-0.2414476
-0.5193796	LAST-WEEK JOHN
-0.5031928	LEAVE IX	-0.15752
-0.4356411	LEG </s>
-0.8416237	LIKE </s>
-1.462982	LIKE CHOCOLATE
-1.296092	LIKE CORN	-0.2414477
-1.062008	LIKE IX	-0.15752
-1.129386	LIKE MARY
-0.5531	LIVE CHICAGO
-1.112115	LOVE </s>
-1.265639	LOVE IX
-1.327637	LOVE JOHN	-0.2414476
-0.3785428	LOVE MARY	-0.2414476
-1.301767	LOVE WHAT	-0.15752
-1.341174	LOVE WHO
-0.5031928	MAN IX
-0.5501289	MANY PEOPLE
-0.2780419	MARY </s>
-1.754951	MARY BILL
-1.74008	MARY BLAME
-1.74008	MARY IX-1P
-1.533395	MARY JOHN
-1.843782	MARY LOVE
-1.765401	MARY SELF	-0.2414477
-1.74008	MARY VEGETABLE
-1.659757	MARY VISIT
-1.754951	MARY WONT
-1.090499	MOTHER ARRIVE
-0.8666248	MOTHER IX
-0.6411042	MOVIE </s>
-0.8489423	MOVIE TOMORROW
-0.4356411	NAME </s>
-0.8227236	NEW CAR	-0.2414476
-0.8489423	NEW COAT
-0.4356411	NEW-YORK </s>
-0.5193796	NEXT-WEEK JOHN
-0.8103649	NOT </s>
-1.276623	NOT BUY	-0.2824587
-1.162995	NOT VISIT	-0.2414477
-1.050838	NOT WHAT
-0.5518924	OLD HOUSE
-0.5431051	PARTY FUTURE
-0.5531	PAST LIVE
-0.9628716	PEOPLE GIVE
-1.019907	PEOPLE GROUP
-1.001141	PEOPLE PREFER
-1.445035	POSS BOOK
-1.525049	POSS BROTHER
-1.538155	POSS CANDY
-1.513458	POSS CAR
-1.538155	POSS FRIEND
-1.538155	POSS LEG
-1.66735	POSS NEW	-0.2414476
-1.538155	POSS OLD
-0.5128323	POTATO WHAT
-1.139779	PREFER BROCCOLI
-1.135135	PREFER CORN	-0.2414477
-1.102399	PREFER GO	-0.2414477
-1.139779	PREFER POTATO
-0.4356411	PUTASIDE </s>
-0.9453852	READ BOOK	-0.2414476
-0.7846496	SAY JOHN
-0.7846496	SAY MARY
-0.5466028	SAY-1P LOVE
-0.5226907	SEARCH-FOR WHO
-1.090176	SEE JOHN
-1.090176	SEE MARY
-1.231681	SEE THROW	-0.2414476
-1.06629	SEE WHAT
-1.10263	SEE WHO
-0.5466028	SELF PREFER	-0.2414477
-0.8227236	SELL CAR
-0.8294069	SELL YESTERDAY
-0.5518924	SHOOT FRANK
-0.9093102	SHOULD </s>
-1.259485	SHOULD BUY
-1.357151	SHOULD FINISH
-1.300237	SHOULD GO
-1.322142	SHOULD NOT
-1.345211	SHOULD SHOULD	-0.2414477
-1.28072	SOMETHING-ONE ARRIVE
-1.418671	SOMETHING-ONE BORROW
-1.323236	SOMETHING-ONE CAR
-1.443213	SOMETHING-ONE POSS
-1.418671	SOMETHING-ONE STUDENT
-1.173588	SOMETHING-ONE WHAT
-1.37037	SOMETHING-ONE WOMAN
-0.4356411	STOLEN </s>
-0.8430902	STUDENT HAVE
-0.8294069	STUDENT SOMETHING-ONE
-0.5361931	SUE BUY
-0.846559	TEACHER APPLE
-0.8096579	TEACHER GIVE
-1.010722	TELL BILL	-0.09675029
-0.5193796	THINK MARY
-0.5518924	THROW APPLE	-0.2414476
-0.4356411	TOMORROW </s>
-0.4356411	TOY </s>
-1.139779	VEGETABLE CHINA
-1.128419	VEGETABLE IX-1P
-1.135135	VEGETABLE KNOW
-1.115214	VEGETABLE PREFER
-0.6869672	VIDEOTAPE </s>
-0.1754691	VISIT MARY	-0.2416953
-1.38599	VISIT MOTHER
-1.31102	VISIT WHAT
-1.330217	VISIT WHO
-0.5518924	WANT SELL
-0.3932865	WHAT </s>
-1.65424	WHAT ARRIVE
-1.767689	WHAT BOOK	-0.1575199
-1.58668	WHAT JOHN	-0.1068606
-0.5733625	WHAT MARY	-0.065604
-1.712845	WHAT SOMETHING-ONE
-1.874792	WHAT WOMAN
-1.712845	WHAT YESTERDAY
-0.3829058	WHO </s>
-1.537907	WHO ARRIVE
-1.362471	WHO IX
-1.451114	WHO JOHN
-1.527878	WHO MARY	-0.2824587
-1.678481	WHO MOTHER
-1.588814	WHO POSS
-1.695305	WHO TELL	-0.2414476
-1.678481	WHO VEGETABLE
-1.483305	WHO WHAT	-0.2414476
-0.5396354	WILL VISIT	-0.2414477
-1.30999	WOMAN ARRIVE
-1.191999	WOMAN BOOK
-1.285584	WOMAN HAVE
-1.062008	WOMAN IX
-1.101169	WOMAN WHAT
-1.010722	WONT EAT
-0.5531	WRITE HOMEWORK
-0.8369467	YESTERDAY </s>
-1.142291	YESTERDAY BOOK
-1.032758	YESTERDAY IX
-1.06629	YESTERDAY WHAT	-0.2414476
-1.10263	YESTERDAY WHO	-0.2414476

\3-grams:
-0.2845603	THROW APPLE WHO
-0.3581998	<s> ARRIVE WHO
-0.1379577	BROTHER ARRIVE </s>
-0.2181551	JOHN ARRIVE </s>
-0.5801679	TELL BILL YESTERDAY
-0.1959902	CAR BLUE </s>
-0.03308267	HAVE BOOK </s>
-0.03308267	READ BOOK </s>
-0.04047357	WHAT BOOK </s>
-0.3494349	JOHN BOX </s>
-0.2522911	CAR BREAK-DOWN </s>
-0.8371829	JOHN BUY CAR
-0.8295718	JOHN BUY WHAT
-0.8476102	JOHN BUY YESTERDAY
-0.1122053	NOT BUY HOUSE
-0.2633452	GO CAN </s>
-0.4540916	JOHN CAN GO
-0.5846023	BUY CAR FUTURE
-0.3545629	NEW CAR BREAK-DOWN
-0.2640864	LIKE CORN </s>
-0.2640864	PREFER CORN </s>
-0.2901038	<s> FRANK POSS
-0.2484554	CAR FUTURE </s>
-0.893743	JOHN FUTURE FINISH
-0.8860512	JOHN FUTURE GO
-0.8857504	JOHN FUTURE NOT
-0.3850422	IX GIRL GIVE
-0.4631124	GIRL GIVE JOHN
-0.4922224	JOHN GIVE IX
-0.3006852	CAN GO CAN
-0.7137506	JOHN GO NEW-YORK
-0.7265506	JOHN GO SHOULD
-0.3483861	PREFER GO MOVIE
-0.2522911	ARRIVE HERE </s>
-0.09761647	BUY HOUSE </s>
-0.8565795	<s> IX GIRL
-0.390504	IX IX </s>
-0.7533491	IX IX IX
-0.3640679	KNOW IX LIKE
-0.2525794	LEAVE IX </s>
-0.4833782	LIKE IX IX
-0.2313866	GIVE JANA TOY
-1.654398	<s> JOHN ARRIVE
-1.114247	<s> JOHN BUY
-1.218701	<s> JOHN CAN
-1.050306	<s> JOHN FUTURE
-1.654398	<s> JOHN GIVE
-1.151541	<s> JOHN GO
-1.248126	<s> JOHN IX
-1.76415	<s> JOHN LEAVE
-1.51262	<s> JOHN LIKE
-1.606869	<s> JOHN MARY
-1.746152	<s> JOHN NOT
-1.464015	<s> JOHN POSS
-1.746152	<s> JOHN PREFER
-1.238412	<s> JOHN SEE
-1.497426	<s> JOHN SHOULD
-1.785581	<s> JOHN WILL
-0.5075805	GIVE JOHN BOX
-0.3566125	LOVE JOHN WHO
-0.5137775	WHAT JOHN LOVE
-0.2818103	JOHN LEAVE IX
-0.5014262	IX LIKE CORN
-0.6153726	JOHN LIKE IX
-0.6194096	<s> LOVE JOHN
-0.343781	<s> LOVE MARY
-0.7292013	JOHN LOVE WHAT
-0.742767	<s> MARY SELF
-0.7412952	<s> MARY VEGETABLE
-0.2876973	LOVE MARY </s>
-0.6382124	LOVE MARY JOHN
-0.1372844	VISIT MARY </s>
-0.2266013	WHAT MARY </s>
-0.1230546	WHO MARY </s>
-0.2901038	POSS NEW CAR
-0.1959902	GO NEW-YORK </s>
-0.5770717	FUTURE NOT BUY
-0.3317254	JOHN NOT VISIT
-0.3262598	JOHN PREFER GO
-0.3292985	SELF PREFER CORN
-0.6871191	JOHN SEE THROW
-0.6622943	JOHN SEE WHO
-0.2296004	MARY SELF PREFER
-0.5059996	GO SHOULD SHOULD
-0.3035159	SHOULD SHOULD </s>
-0.7099652	<s> SOMETHING-ONE STUDENT
-0.1959902	CAR STOLEN </s>
-0.2266981	<s> SUE BUY
-0.3165667	<s> TELL BILL
-0.3165667	WHO TELL BILL
-0.2310561	SEE THROW APPLE
-0.1959902	JANA TOY </s>
-0.0918512	NOT VISIT MARY
-0.0918512	WILL VISIT MARY
-0.5397742	<s> WHAT JOHN
-0.2324565	LOVE WHAT </s>
-0.181539	WHO WHAT </s>
-0.3602478	YESTERDAY WHAT BOOK
-0.8134732	<s> WHO JOHN
-0.8692999	<s> WHO TELL
-0.3531222	APPLE WHO MARY
-0.2699283	ARRIVE WHO </s>
-0.1778544	JOHN WHO </s>
-0.3531222	YESTERDAY WHO MARY
-0.2276634	JOHN WILL VISIT
-0.326282	BILL YESTERDAY WHO
-0.322659	BUY YESTERDAY WHAT

\end\
